digraph Tree {
node [shape=box, style="filled, rounded", color="black", fontname="helvetica"] ;
edge [fontname="helvetica"] ;
0 [label="node #0\nFamily_History <= 0.5\ngini = 0.368\nsamples = 10000\nvalue = [7567, 2433]\nclass = No", fillcolor="#edaa79"] ;
1 [label="node #1\nAir_Pollution_Level <= 1.5\ngini = 0.222\nsamples = 6966\nvalue = [6079, 887]\nclass = No", fillcolor="#e99356"] ;
0 -> 1 [labeldistance=2.5, labelangle=45, headlabel="True"] ;
2 [label="node #2\nSmoking_Status <= 1.5\ngini = 0.093\nsamples = 5496\nvalue = [5226, 270]\nclass = No", fillcolor="#e68843"] ;
1 -> 2 ;
3 [label="node #3\ngini = 0.0\nsamples = 4681\nvalue = [4681, 0]\nclass = No", fillcolor="#e58139"] ;
2 -> 3 ;
4 [label="node #4\nPhysical_Activity_Level <= 0.5\ngini = 0.443\nsamples = 815\nvalue = [545, 270]\nclass = No", fillcolor="#f2bf9b"] ;
2 -> 4 ;
5 [label="node #5\nAllergies_None <= 0.5\ngini = 0.427\nsamples = 324\nvalue = [100, 224]\nclass = Yes", fillcolor="#91c9f1"] ;
4 -> 5 ;
6 [label="node #6\ngini = 0.0\nsamples = 224\nvalue = [0, 224]\nclass = Yes", fillcolor="#399de5"] ;
5 -> 6 ;
7 [label="node #7\ngini = 0.0\nsamples = 100\nvalue = [100, 0]\nclass = No", fillcolor="#e58139"] ;
5 -> 7 ;
8 [label="node #8\nBMI <= 30.05\ngini = 0.17\nsamples = 491\nvalue = [445, 46]\nclass = No", fillcolor="#e88e4d"] ;
4 -> 8 ;
9 [label="node #9\ngini = 0.0\nsamples = 421\nvalue = [421, 0]\nclass = No", fillcolor="#e58139"] ;
8 -> 9 ;
10 [label="node #10\nAllergies_None <= 0.5\ngini = 0.451\nsamples = 70\nvalue = [24, 46]\nclass = Yes", fillcolor="#a0d0f3"] ;
8 -> 10 ;
11 [label="node #11\ngini = 0.0\nsamples = 46\nvalue = [0, 46]\nclass = Yes", fillcolor="#399de5"] ;
10 -> 11 ;
12 [label="node #12\ngini = 0.0\nsamples = 24\nvalue = [24, 0]\nclass = No", fillcolor="#e58139"] ;
10 -> 12 ;
13 [label="node #13\nPhysical_Activity_Level <= 0.5\ngini = 0.487\nsamples = 1470\nvalue = [853, 617]\nclass = No", fillcolor="#f8dcc8"] ;
1 -> 13 ;
14 [label="node #14\nAllergies_None <= 0.5\ngini = 0.376\nsamples = 606\nvalue = [152, 454]\nclass = Yes", fillcolor="#7bbeee"] ;
13 -> 14 ;
15 [label="node #15\ngini = 0.0\nsamples = 433\nvalue = [0, 433]\nclass = Yes", fillcolor="#399de5"] ;
14 -> 15 ;
16 [label="node #16\nSmoking_Status <= 1.5\ngini = 0.213\nsamples = 173\nvalue = [152, 21]\nclass = No", fillcolor="#e99254"] ;
14 -> 16 ;
17 [label="node #17\ngini = 0.0\nsamples = 152\nvalue = [152, 0]\nclass = No", fillcolor="#e58139"] ;
16 -> 17 ;
18 [label="node #18\ngini = 0.0\nsamples = 21\nvalue = [0, 21]\nclass = Yes", fillcolor="#399de5"] ;
16 -> 18 ;
19 [label="node #19\nSmoking_Status <= 1.5\ngini = 0.306\nsamples = 864\nvalue = [701, 163]\nclass = No", fillcolor="#eb9e67"] ;
13 -> 19 ;
20 [label="node #20\nBMI <= 30.1\ngini = 0.165\nsamples = 740\nvalue = [673, 67]\nclass = No", fillcolor="#e88e4d"] ;
19 -> 20 ;
21 [label="node #21\ngini = 0.0\nsamples = 632\nvalue = [632, 0]\nclass = No", fillcolor="#e58139"] ;
20 -> 21 ;
22 [label="node #22\nAllergies_None <= 0.5\ngini = 0.471\nsamples = 108\nvalue = [41, 67]\nclass = Yes", fillcolor="#b2d9f5"] ;
20 -> 22 ;
23 [label="node #23\ngini = 0.0\nsamples = 67\nvalue = [0, 67]\nclass = Yes", fillcolor="#399de5"] ;
22 -> 23 ;
24 [label="node #24\ngini = 0.0\nsamples = 41\nvalue = [41, 0]\nclass = No", fillcolor="#e58139"] ;
22 -> 24 ;
25 [label="node #25\nAllergies_None <= 0.5\ngini = 0.35\nsamples = 124\nvalue = [28, 96]\nclass = Yes", fillcolor="#73baed"] ;
19 -> 25 ;
26 [label="node #26\ngini = 0.0\nsamples = 90\nvalue = [0, 90]\nclass = Yes", fillcolor="#399de5"] ;
25 -> 26 ;
27 [label="node #27\nBMI <= 30.25\ngini = 0.291\nsamples = 34\nvalue = [28, 6]\nclass = No", fillcolor="#eb9c63"] ;
25 -> 27 ;
28 [label="node #28\ngini = 0.0\nsamples = 28\nvalue = [28, 0]\nclass = No", fillcolor="#e58139"] ;
27 -> 28 ;
29 [label="node #29\ngini = 0.0\nsamples = 6\nvalue = [0, 6]\nclass = Yes", fillcolor="#399de5"] ;
27 -> 29 ;
30 [label="node #30\nPhysical_Activity_Level <= 0.5\ngini = 0.5\nsamples = 3034\nvalue = [1488, 1546]\nclass = Yes", fillcolor="#f8fbfe"] ;
0 -> 30 [labeldistance=2.5, labelangle=-45, headlabel="False"] ;
31 [label="node #31\nAllergies_None <= 0.5\ngini = 0.317\nsamples = 1204\nvalue = [238, 966]\nclass = Yes", fillcolor="#6ab5eb"] ;
30 -> 31 ;
32 [label="node #32\ngini = 0.0\nsamples = 847\nvalue = [0, 847]\nclass = Yes", fillcolor="#399de5"] ;
31 -> 32 ;
33 [label="node #33\nAir_Pollution_Level <= 1.5\ngini = 0.444\nsamples = 357\nvalue = [238, 119]\nclass = No", fillcolor="#f2c09c"] ;
31 -> 33 ;
34 [label="node #34\nSmoking_Status <= 1.5\ngini = 0.237\nsamples = 276\nvalue = [238.0, 38.0]\nclass = No", fillcolor="#e99559"] ;
33 -> 34 ;
35 [label="node #35\ngini = 0.0\nsamples = 238\nvalue = [238, 0]\nclass = No", fillcolor="#e58139"] ;
34 -> 35 ;
36 [label="node #36\ngini = 0.0\nsamples = 38\nvalue = [0, 38]\nclass = Yes", fillcolor="#399de5"] ;
34 -> 36 ;
37 [label="node #37\ngini = 0.0\nsamples = 81\nvalue = [0, 81]\nclass = Yes", fillcolor="#399de5"] ;
33 -> 37 ;
38 [label="node #38\nAir_Pollution_Level <= 1.5\ngini = 0.433\nsamples = 1830\nvalue = [1250, 580]\nclass = No", fillcolor="#f1bb95"] ;
30 -> 38 ;
39 [label="node #39\nBMI <= 30.05\ngini = 0.315\nsamples = 1457\nvalue = [1172, 285]\nclass = No", fillcolor="#eba069"] ;
38 -> 39 ;
40 [label="node #40\nSmoking_Status <= 1.5\ngini = 0.175\nsamples = 1237\nvalue = [1117.0, 120.0]\nclass = No", fillcolor="#e88f4e"] ;
39 -> 40 ;
41 [label="node #41\ngini = 0.0\nsamples = 1057\nvalue = [1057, 0]\nclass = No", fillcolor="#e58139"] ;
40 -> 41 ;
42 [label="node #42\nAllergies_None <= 0.5\ngini = 0.444\nsamples = 180\nvalue = [60, 120]\nclass = Yes", fillcolor="#9ccef2"] ;
40 -> 42 ;
43 [label="node #43\ngini = 0.0\nsamples = 120\nvalue = [0, 120]\nclass = Yes", fillcolor="#399de5"] ;
42 -> 43 ;
44 [label="node #44\ngini = 0.0\nsamples = 60\nvalue = [60, 0]\nclass = No", fillcolor="#e58139"] ;
42 -> 44 ;
45 [label="node #45\nAllergies_None <= 0.5\ngini = 0.375\nsamples = 220\nvalue = [55, 165]\nclass = Yes", fillcolor="#7bbeee"] ;
39 -> 45 ;
46 [label="node #46\ngini = 0.0\nsamples = 153\nvalue = [0, 153]\nclass = Yes", fillcolor="#399de5"] ;
45 -> 46 ;
47 [label="node #47\nSmoking_Status <= 1.5\ngini = 0.294\nsamples = 67\nvalue = [55, 12]\nclass = No", fillcolor="#eb9c64"] ;
45 -> 47 ;
48 [label="node #48\ngini = 0.0\nsamples = 55\nvalue = [55, 0]\nclass = No", fillcolor="#e58139"] ;
47 -> 48 ;
49 [label="node #49\ngini = 0.0\nsamples = 12\nvalue = [0, 12]\nclass = Yes", fillcolor="#399de5"] ;
47 -> 49 ;
50 [label="node #50\nAllergies_None <= 0.5\ngini = 0.331\nsamples = 373\nvalue = [78, 295]\nclass = Yes", fillcolor="#6db7ec"] ;
38 -> 50 ;
51 [label="node #51\ngini = 0.0\nsamples = 267\nvalue = [0, 267]\nclass = Yes", fillcolor="#399de5"] ;
50 -> 51 ;
52 [label="node #52\nBMI <= 30.0\ngini = 0.389\nsamples = 106\nvalue = [78, 28]\nclass = No", fillcolor="#eeae80"] ;
50 -> 52 ;
53 [label="node #53\nSmoking_Status <= 1.5\ngini = 0.217\nsamples = 89\nvalue = [78, 11]\nclass = No", fillcolor="#e99355"] ;
52 -> 53 ;
54 [label="node #54\ngini = 0.0\nsamples = 78\nvalue = [78, 0]\nclass = No", fillcolor="#e58139"] ;
53 -> 54 ;
55 [label="node #55\ngini = 0.0\nsamples = 11\nvalue = [0, 11]\nclass = Yes", fillcolor="#399de5"] ;
53 -> 55 ;
56 [label="node #56\ngini = 0.0\nsamples = 17\nvalue = [0, 17]\nclass = Yes", fillcolor="#399de5"] ;
52 -> 56 ;
}